digraph Tree {
node [shape=box] ;
0 [label="one_hot_encoder__x3_1 <= 0.5\ngini = 0.769\nsamples = 80\nvalue = [31, 16, 4, 12, 4, 7, 6]\nclass = 1"] ;
1 [label="one_hot_encoder__x1_1 <= 0.5\ngini = 0.785\nsamples = 49\nvalue = [0, 16, 4, 12, 4, 7, 6]\nclass = 2"] ;
0 -> 1 [labeldistance=2.5, labelangle=45, headlabel="True"] ;
2 [label="one_hot_encoder__x11_1 <= 0.5\ngini = 0.76\nsamples = 33\nvalue = [0, 0, 4, 12, 4, 7, 6]\nclass = 4"] ;
1 -> 2 ;
3 [label="one_hot_encoder__x12_6 <= 0.5\ngini = 0.735\nsamples = 21\nvalue = [0, 0, 4, 0, 4, 7, 6]\nclass = 6"] ;
2 -> 3 ;
4 [label="one_hot_encoder__x8_0 <= 0.5\ngini = 0.663\nsamples = 13\nvalue = [0, 0, 4, 0, 4, 0, 5]\nclass = 7"] ;
3 -> 4 ;
5 [label="one_hot_encoder__x13_0 <= 0.5\ngini = 0.5\nsamples = 8\nvalue = [0, 0, 4, 0, 4, 0, 0]\nclass = 3"] ;
4 -> 5 ;
6 [label="one_hot_encoder__x12_0 <= 0.5\ngini = 0.32\nsamples = 5\nvalue = [0, 0, 4, 0, 1, 0, 0]\nclass = 3"] ;
5 -> 6 ;
7 [label="one_hot_encoder__x15_0 <= 0.5\ngini = 0.5\nsamples = 2\nvalue = [0, 0, 1, 0, 1, 0, 0]\nclass = 3"] ;
6 -> 7 ;
8 [label="gini = 0.0\nsamples = 1\nvalue = [0, 0, 1, 0, 0, 0, 0]\nclass = 3"] ;
7 -> 8 ;
9 [label="gini = 0.0\nsamples = 1\nvalue = [0, 0, 0, 0, 1, 0, 0]\nclass = 5"] ;
7 -> 9 ;
10 [label="gini = 0.0\nsamples = 3\nvalue = [0, 0, 3, 0, 0, 0, 0]\nclass = 3"] ;
6 -> 10 ;
11 [label="gini = 0.0\nsamples = 3\nvalue = [0, 0, 0, 0, 3, 0, 0]\nclass = 5"] ;
5 -> 11 ;
12 [label="gini = 0.0\nsamples = 5\nvalue = [0, 0, 0, 0, 0, 0, 5]\nclass = 7"] ;
4 -> 12 ;
13 [label="one_hot_encoder__x5_1 <= 0.5\ngini = 0.219\nsamples = 8\nvalue = [0, 0, 0, 0, 0, 7, 1]\nclass = 6"] ;
3 -> 13 ;
14 [label="gini = 0.0\nsamples = 7\nvalue = [0, 0, 0, 0, 0, 7, 0]\nclass = 6"] ;
13 -> 14 ;
15 [label="gini = 0.0\nsamples = 1\nvalue = [0, 0, 0, 0, 0, 0, 1]\nclass = 7"] ;
13 -> 15 ;
16 [label="gini = 0.0\nsamples = 12\nvalue = [0, 0, 0, 12, 0, 0, 0]\nclass = 4"] ;
2 -> 16 ;
17 [label="gini = 0.0\nsamples = 16\nvalue = [0, 16, 0, 0, 0, 0, 0]\nclass = 2"] ;
1 -> 17 ;
18 [label="gini = 0.0\nsamples = 31\nvalue = [31, 0, 0, 0, 0, 0, 0]\nclass = 1"] ;
0 -> 18 [labeldistance=2.5, labelangle=-45, headlabel="False"] ;
}